digraph Tree {
node [shape=box] ;
0 [label="Weight <= 162.9526\ngini = 0.5\nsamples = 6000\nvalue = [3030, 2970]"] ;
1 [label="Weight <= 152.5037\ngini = 0.1886\nsamples = 3130\nvalue = [2800, 330]"] ;
0 -> 1 [labeldistance=2.5, labelangle=45, headlabel="True"] ;
2 [label="Weight <= 139.8213\ngini = 0.0921\nsamples = 2584\nvalue = [2459, 125]"] ;
1 -> 2 ;
3 [label="gini = 0.0338\nsamples = 1805\nvalue = [1774, 31]"] ;
2 -> 3 ;
4 [label="gini = 0.2122\nsamples = 779\nvalue = [685, 94]"] ;
2 -> 4 ;
5 [label="Height <= 65.508\ngini = 0.469\nsamples = 546\nvalue = [341, 205]"] ;
1 -> 5 ;
6 [label="gini = 0.4898\nsamples = 196\nvalue = [84, 112]"] ;
5 -> 6 ;
7 [label="gini = 0.3902\nsamples = 350\nvalue = [257, 93]"] ;
5 -> 7 ;
8 [label="Weight <= 175.0369\ngini = 0.1474\nsamples = 2870\nvalue = [230, 2640]"] ;
0 -> 8 [labeldistance=2.5, labelangle=-45, headlabel="False"] ;
9 [label="Height <= 67.0589\ngini = 0.3907\nsamples = 676\nvalue = [180, 496]"] ;
8 -> 9 ;
10 [label="gini = 0.2837\nsamples = 333\nvalue = [57, 276]"] ;
9 -> 10 ;
11 [label="gini = 0.46\nsamples = 343\nvalue = [123, 220]"] ;
9 -> 11 ;
12 [label="Weight <= 185.8577\ngini = 0.0445\nsamples = 2194\nvalue = [50, 2144]"] ;
8 -> 12 ;
13 [label="gini = 0.1117\nsamples = 640\nvalue = [38, 602]"] ;
12 -> 13 ;
14 [label="gini = 0.0153\nsamples = 1554\nvalue = [12, 1542]"] ;
12 -> 14 ;
}