digraph Tree {
node [shape=box] ;
0 [label="RandomForestClassifier <= 0.45\ngini = 0.2374\nsamples = 959\nvalue = [827, 132]"] ;
1 [label="RandomForestClassifier <= 0.35\ngini = 0.0072\nsamples = 828\nvalue = [825, 3]"] ;
0 -> 1 [labeldistance=2.5, labelangle=45, headlabel="True"] ;
2 [label="gini = 0.0\nsamples = 818\nvalue = [818, 0]"] ;
1 -> 2 ;
3 [label="LogisticRegression <= 0.2588\ngini = 0.42\nsamples = 10\nvalue = [7, 3]"] ;
1 -> 3 ;
4 [label="gini = 0.375\nsamples = 4\nvalue = [1, 3]"] ;
3 -> 4 ;
5 [label="gini = 0.0\nsamples = 6\nvalue = [6, 0]"] ;
3 -> 5 ;
6 [label="RandomForestClassifier <= 0.55\ngini = 0.0301\nsamples = 131\nvalue = [2, 129]"] ;
0 -> 6 [labeldistance=2.5, labelangle=-45, headlabel="False"] ;
7 [label="GaussianNB <= 0.7466\ngini = 0.2778\nsamples = 12\nvalue = [2, 10]"] ;
6 -> 7 ;
8 [label="gini = 0.0\nsamples = 10\nvalue = [0, 10]"] ;
7 -> 8 ;
9 [label="gini = 0.0\nsamples = 2\nvalue = [2, 0]"] ;
7 -> 9 ;
10 [label="gini = 0.0\nsamples = 119\nvalue = [0, 119]"] ;
6 -> 10 ;
}